digraph Tree {
node [shape=box] ;
0 [label="X[1] <= 0.5\nentropy = 0.9526\nsamples = 596\nvalue = [374, 222]"] ;
1 [label="X[0] <= 2.5\nentropy = 0.8509\nsamples = 206\nvalue = [57, 149]"] ;
0 -> 1 [labeldistance=2.5, labelangle=45, headlabel="True"] ;
2 [label="X[5] <= 2.5\nentropy = 0.2302\nsamples = 107\nvalue = [4, 103]"] ;
1 -> 2 ;
3 [label="X[4] <= 88.775\nentropy = 1.0\nsamples = 2\nvalue = [1, 1]"] ;
2 -> 3 ;
4 [label="entropy = 0.0\nsamples = 1\nvalue = [0, 1]"] ;
3 -> 4 ;
5 [label="entropy = 0.0\nsamples = 1\nvalue = [1, 0]"] ;
3 -> 5 ;
6 [label="X[5] <= 24.5\nentropy = 0.1872\nsamples = 105\nvalue = [3, 102]"] ;
2 -> 6 ;
7 [label="entropy = 0.0\nsamples = 34\nvalue = [0, 34]"] ;
6 -> 7 ;
8 [label="X[5] <= 27.5\nentropy = 0.2525\nsamples = 71\nvalue = [3, 68]"] ;
6 -> 8 ;
9 [label="X[4] <= 17.4291\nentropy = 1.0\nsamples = 4\nvalue = [2, 2]"] ;
8 -> 9 ;
10 [label="entropy = 0.0\nsamples = 2\nvalue = [0, 2]"] ;
9 -> 10 ;
11 [label="entropy = 0.0\nsamples = 2\nvalue = [2, 0]"] ;
9 -> 11 ;
12 [label="X[5] <= 49.5\nentropy = 0.1119\nsamples = 67\nvalue = [1, 66]"] ;
8 -> 12 ;
13 [label="entropy = 0.0\nsamples = 54\nvalue = [0, 54]"] ;
12 -> 13 ;
14 [label="X[5] <= 51.5\nentropy = 0.3912\nsamples = 13\nvalue = [1, 12]"] ;
12 -> 14 ;
15 [label="X[4] <= 19.6063\nentropy = 0.9183\nsamples = 3\nvalue = [1, 2]"] ;
14 -> 15 ;
16 [label="entropy = 0.0\nsamples = 2\nvalue = [0, 2]"] ;
15 -> 16 ;
17 [label="entropy = 0.0\nsamples = 1\nvalue = [1, 0]"] ;
15 -> 17 ;
18 [label="entropy = 0.0\nsamples = 10\nvalue = [0, 10]"] ;
14 -> 18 ;
19 [label="X[4] <= 23.35\nentropy = 0.9964\nsamples = 99\nvalue = [53, 46]"] ;
1 -> 19 ;
20 [label="X[5] <= 36.5\nentropy = 0.9911\nsamples = 81\nvalue = [36, 45]"] ;
19 -> 20 ;
21 [label="X[4] <= 14.852\nentropy = 0.9793\nsamples = 77\nvalue = [32, 45]"] ;
20 -> 21 ;
22 [label="X[4] <= 7.7625\nentropy = 0.9997\nsamples = 53\nvalue = [26, 27]"] ;
21 -> 22 ;
23 [label="X[3] <= 1.0\nentropy = 0.7919\nsamples = 21\nvalue = [5, 16]"] ;
22 -> 23 ;
24 [label="X[4] <= 6.9875\nentropy = 0.7219\nsamples = 20\nvalue = [4, 16]"] ;
23 -> 24 ;
25 [label="entropy = 0.0\nsamples = 1\nvalue = [1, 0]"] ;
24 -> 25 ;
26 [label="X[4] <= 7.5896\nentropy = 0.6292\nsamples = 19\nvalue = [3, 16]"] ;
24 -> 26 ;
27 [label="entropy = 0.0\nsamples = 6\nvalue = [0, 6]"] ;
26 -> 27 ;
28 [label="X[4] <= 7.6396\nentropy = 0.7793\nsamples = 13\nvalue = [3, 10]"] ;
26 -> 28 ;
29 [label="entropy = 0.0\nsamples = 1\nvalue = [1, 0]"] ;
28 -> 29 ;
30 [label="X[4] <= 7.7438\nentropy = 0.65\nsamples = 12\nvalue = [2, 10]"] ;
28 -> 30 ;
31 [label="entropy = 0.0\nsamples = 4\nvalue = [0, 4]"] ;
30 -> 31 ;
32 [label="X[5] <= 21.5\nentropy = 0.8113\nsamples = 8\nvalue = [2, 6]"] ;
30 -> 32 ;
33 [label="entropy = 0.0\nsamples = 1\nvalue = [1, 0]"] ;
32 -> 33 ;
34 [label="X[5] <= 25.0\nentropy = 0.5917\nsamples = 7\nvalue = [1, 6]"] ;
32 -> 34 ;
35 [label="entropy = 0.0\nsamples = 1\nvalue = [0, 1]"] ;
34 -> 35 ;
36 [label="entropy = 0.65\nsamples = 6\nvalue = [1, 5]"] ;
34 -> 36 ;
37 [label="entropy = 0.0\nsamples = 1\nvalue = [1, 0]"] ;
23 -> 37 ;
38 [label="X[4] <= 13.9083\nentropy = 0.9284\nsamples = 32\nvalue = [21, 11]"] ;
22 -> 38 ;
39 [label="X[4] <= 10.825\nentropy = 0.9751\nsamples = 27\nvalue = [16, 11]"] ;
38 -> 39 ;
40 [label="X[4] <= 9.5875\nentropy = 0.8865\nsamples = 23\nvalue = [16, 7]"] ;
39 -> 40 ;
41 [label="X[3] <= 0.5\nentropy = 0.9774\nsamples = 17\nvalue = [10, 7]"] ;
40 -> 41 ;
42 [label="X[5] <= 29.5\nentropy = 0.9183\nsamples = 15\nvalue = [10, 5]"] ;
41 -> 42 ;
43 [label="X[4] <= 8.0396\nentropy = 0.8631\nsamples = 14\nvalue = [10, 4]"] ;
42 -> 43 ;
44 [label="X[5] <= 25.5\nentropy = 0.971\nsamples = 10\nvalue = [6, 4]"] ;
43 -> 44 ;
45 [label="X[4] <= 7.9771\nentropy = 0.65\nsamples = 6\nvalue = [5, 1]"] ;
44 -> 45 ;
46 [label="entropy = 0.0\nsamples = 5\nvalue = [5, 0]"] ;
45 -> 46 ;
47 [label="entropy = 0.0\nsamples = 1\nvalue = [0, 1]"] ;
45 -> 47 ;
48 [label="X[4] <= 7.8875\nentropy = 0.8113\nsamples = 4\nvalue = [1, 3]"] ;
44 -> 48 ;
49 [label="entropy = 0.0\nsamples = 2\nvalue = [0, 2]"] ;
48 -> 49 ;
50 [label="X[5] <= 27.5\nentropy = 1.0\nsamples = 2\nvalue = [1, 1]"] ;
48 -> 50 ;
51 [label="entropy = 0.0\nsamples = 1\nvalue = [0, 1]"] ;
50 -> 51 ;
52 [label="entropy = 0.0\nsamples = 1\nvalue = [1, 0]"] ;
50 -> 52 ;
53 [label="entropy = 0.0\nsamples = 4\nvalue = [4, 0]"] ;
43 -> 53 ;
54 [label="entropy = 0.0\nsamples = 1\nvalue = [0, 1]"] ;
42 -> 54 ;
55 [label="entropy = 0.0\nsamples = 2\nvalue = [0, 2]"] ;
41 -> 55 ;
56 [label="entropy = 0.0\nsamples = 6\nvalue = [6, 0]"] ;
40 -> 56 ;
57 [label="entropy = 0.0\nsamples = 4\nvalue = [0, 4]"] ;
39 -> 57 ;
58 [label="entropy = 0.0\nsamples = 5\nvalue = [5, 0]"] ;
38 -> 58 ;
59 [label="X[4] <= 15.975\nentropy = 0.8113\nsamples = 24\nvalue = [6, 18]"] ;
21 -> 59 ;
60 [label="entropy = 0.0\nsamples = 6\nvalue = [0, 6]"] ;
59 -> 60 ;
61 [label="X[2] <= 2.5\nentropy = 0.9183\nsamples = 18\nvalue = [6, 12]"] ;
59 -> 61 ;
62 [label="X[3] <= 3.5\nentropy = 0.8113\nsamples = 16\nvalue = [4, 12]"] ;
61 -> 62 ;
63 [label="X[4] <= 18.6292\nentropy = 0.7219\nsamples = 15\nvalue = [3, 12]"] ;
62 -> 63 ;
64 [label="X[4] <= 17.7\nentropy = 0.9852\nsamples = 7\nvalue = [3, 4]"] ;
63 -> 64 ;
65 [label="X[5] <= 27.0\nentropy = 0.7219\nsamples = 5\nvalue = [1, 4]"] ;
64 -> 65 ;
66 [label="X[3] <= 1.0\nentropy = 1.0\nsamples = 2\nvalue = [1, 1]"] ;
65 -> 66 ;
67 [label="entropy = 0.0\nsamples = 1\nvalue = [1, 0]"] ;
66 -> 67 ;
68 [label="entropy = 0.0\nsamples = 1\nvalue = [0, 1]"] ;
66 -> 68 ;
69 [label="entropy = 0.0\nsamples = 3\nvalue = [0, 3]"] ;
65 -> 69 ;
70 [label="entropy = 0.0\nsamples = 2\nvalue = [2, 0]"] ;
64 -> 70 ;
71 [label="entropy = 0.0\nsamples = 8\nvalue = [0, 8]"] ;
63 -> 71 ;
72 [label="entropy = 0.0\nsamples = 1\nvalue = [1, 0]"] ;
62 -> 72 ;
73 [label="entropy = 0.0\nsamples = 2\nvalue = [2, 0]"] ;
61 -> 73 ;
74 [label="entropy = 0.0\nsamples = 4\nvalue = [4, 0]"] ;
20 -> 74 ;
75 [label="X[5] <= 7.0\nentropy = 0.3095\nsamples = 18\nvalue = [17, 1]"] ;
19 -> 75 ;
76 [label="X[5] <= 3.5\nentropy = 0.9183\nsamples = 3\nvalue = [2, 1]"] ;
75 -> 76 ;
77 [label="entropy = 0.0\nsamples = 2\nvalue = [2, 0]"] ;
76 -> 77 ;
78 [label="entropy = 0.0\nsamples = 1\nvalue = [0, 1]"] ;
76 -> 78 ;
79 [label="entropy = 0.0\nsamples = 15\nvalue = [15, 0]"] ;
75 -> 79 ;
80 [label="X[5] <= 3.5\nentropy = 0.6955\nsamples = 390\nvalue = [317, 73]"] ;
0 -> 80 [labeldistance=2.5, labelangle=-45, headlabel="False"] ;
81 [label="X[2] <= 3.0\nentropy = 0.7793\nsamples = 13\nvalue = [3, 10]"] ;
80 -> 81 ;
82 [label="entropy = 0.0\nsamples = 9\nvalue = [0, 9]"] ;
81 -> 82 ;
83 [label="X[5] <= 2.5\nentropy = 0.8113\nsamples = 4\nvalue = [3, 1]"] ;
81 -> 83 ;
84 [label="entropy = 0.0\nsamples = 3\nvalue = [3, 0]"] ;
83 -> 84 ;
85 [label="entropy = 0.0\nsamples = 1\nvalue = [0, 1]"] ;
83 -> 85 ;
86 [label="X[4] <= 52.2771\nentropy = 0.651\nsamples = 377\nvalue = [314, 63]"] ;
80 -> 86 ;
87 [label="X[4] <= 36.8771\nentropy = 0.5804\nsamples = 332\nvalue = [286, 46]"] ;
86 -> 87 ;
88 [label="X[0] <= 1.5\nentropy = 0.601\nsamples = 314\nvalue = [268, 46]"] ;
87 -> 88 ;
89 [label="X[4] <= 26.1437\nentropy = 0.9082\nsamples = 34\nvalue = [23, 11]"] ;
88 -> 89 ;
90 [label="entropy = 0.0\nsamples = 6\nvalue = [6, 0]"] ;
89 -> 90 ;
91 [label="X[4] <= 26.4188\nentropy = 0.9666\nsamples = 28\nvalue = [17, 11]"] ;
89 -> 91 ;
92 [label="entropy = 0.0\nsamples = 2\nvalue = [0, 2]"] ;
91 -> 92 ;
93 [label="X[5] <= 27.5\nentropy = 0.9306\nsamples = 26\nvalue = [17, 9]"] ;
91 -> 93 ;
94 [label="entropy = 0.0\nsamples = 1\nvalue = [0, 1]"] ;
93 -> 94 ;
95 [label="X[5] <= 71.0\nentropy = 0.9044\nsamples = 25\nvalue = [17, 8]"] ;
93 -> 95 ;
96 [label="X[5] <= 57.0\nentropy = 0.8709\nsamples = 24\nvalue = [17, 7]"] ;
95 -> 96 ;
97 [label="X[5] <= 31.0\nentropy = 0.9495\nsamples = 19\nvalue = [12, 7]"] ;
96 -> 97 ;
98 [label="X[4] <= 28.725\nentropy = 0.7642\nsamples = 9\nvalue = [7, 2]"] ;
97 -> 98 ;
99 [label="entropy = 0.0\nsamples = 4\nvalue = [4, 0]"] ;
98 -> 99 ;
100 [label="X[4] <= 30.5\nentropy = 0.971\nsamples = 5\nvalue = [3, 2]"] ;
98 -> 100 ;
101 [label="X[5] <= 28.5\nentropy = 0.9183\nsamples = 3\nvalue = [1, 2]"] ;
100 -> 101 ;
102 [label="entropy = 0.0\nsamples = 2\nvalue = [0, 2]"] ;
101 -> 102 ;
103 [label="entropy = 0.0\nsamples = 1\nvalue = [1, 0]"] ;
101 -> 103 ;
104 [label="entropy = 0.0\nsamples = 2\nvalue = [2, 0]"] ;
100 -> 104 ;
105 [label="X[4] <= 28.125\nentropy = 1.0\nsamples = 10\nvalue = [5, 5]"] ;
97 -> 105 ;
106 [label="X[5] <= 53.5\nentropy = 0.8113\nsamples = 4\nvalue = [1, 3]"] ;
105 -> 106 ;
107 [label="entropy = 0.0\nsamples = 3\nvalue = [0, 3]"] ;
106 -> 107 ;
108 [label="entropy = 0.0\nsamples = 1\nvalue = [1, 0]"] ;
106 -> 108 ;
109 [label="X[5] <= 34.5\nentropy = 0.9183\nsamples = 6\nvalue = [4, 2]"] ;
105 -> 109 ;
110 [label="entropy = 0.0\nsamples = 1\nvalue = [0, 1]"] ;
109 -> 110 ;
111 [label="X[5] <= 55.5\nentropy = 0.7219\nsamples = 5\nvalue = [4, 1]"] ;
109 -> 111 ;
112 [label="entropy = 0.0\nsamples = 4\nvalue = [4, 0]"] ;
111 -> 112 ;
113 [label="entropy = 0.0\nsamples = 1\nvalue = [0, 1]"] ;
111 -> 113 ;
114 [label="entropy = 0.0\nsamples = 5\nvalue = [5, 0]"] ;
96 -> 114 ;
115 [label="entropy = 0.0\nsamples = 1\nvalue = [0, 1]"] ;
95 -> 115 ;
116 [label="X[5] <= 13.5\nentropy = 0.5436\nsamples = 280\nvalue = [245, 35]"] ;
88 -> 116 ;
117 [label="X[2] <= 2.5\nentropy = 0.971\nsamples = 10\nvalue = [6, 4]"] ;
116 -> 117 ;
118 [label="X[3] <= 0.5\nentropy = 0.7219\nsamples = 5\nvalue = [1, 4]"] ;
117 -> 118 ;
119 [label="X[2] <= 0.5\nentropy = 1.0\nsamples = 2\nvalue = [1, 1]"] ;
118 -> 119 ;
120 [label="entropy = 0.0\nsamples = 1\nvalue = [1, 0]"] ;
119 -> 120 ;
121 [label="entropy = 0.0\nsamples = 1\nvalue = [0, 1]"] ;
119 -> 121 ;
122 [label="entropy = 0.0\nsamples = 3\nvalue = [0, 3]"] ;
118 -> 122 ;
123 [label="entropy = 0.0\nsamples = 5\nvalue = [5, 0]"] ;
117 -> 123 ;
124 [label="X[5] <= 32.25\nentropy = 0.5143\nsamples = 270\nvalue = [239, 31]"] ;
116 -> 124 ;
125 [label="X[5] <= 30.5\nentropy = 0.5647\nsamples = 196\nvalue = [170, 26]"] ;
124 -> 125 ;
126 [label="X[4] <= 23.625\nentropy = 0.5141\nsamples = 183\nvalue = [162, 21]"] ;
125 -> 126 ;
127 [label="X[4] <= 22.8875\nentropy = 0.5333\nsamples = 173\nvalue = [152, 21]"] ;
126 -> 127 ;
128 [label="X[4] <= 7.7979\nentropy = 0.5186\nsamples = 172\nvalue = [152, 20]"] ;
127 -> 128 ;
129 [label="X[5] <= 20.5\nentropy = 0.6565\nsamples = 59\nvalue = [49, 10]"] ;
128 -> 129 ;
130 [label="entropy = 0.0\nsamples = 8\nvalue = [8, 0]"] ;
129 -> 130 ;
131 [label="X[4] <= 7.7459\nentropy = 0.714\nsamples = 51\nvalue = [41, 10]"] ;
129 -> 131 ;
132 [label="X[4] <= 7.2396\nentropy = 0.5226\nsamples = 34\nvalue = [30, 4]"] ;
131 -> 132 ;
133 [label="X[5] <= 26.5\nentropy = 0.65\nsamples = 24\nvalue = [20, 4]"] ;
132 -> 133 ;
134 [label="X[4] <= 3.525\nentropy = 1.0\nsamples = 6\nvalue = [3, 3]"] ;
133 -> 134 ;
135 [label="entropy = 0.0\nsamples = 1\nvalue = [0, 1]"] ;
134 -> 135 ;
136 [label="X[5] <= 24.5\nentropy = 0.971\nsamples = 5\nvalue = [3, 2]"] ;
134 -> 136 ;
137 [label="X[4] <= 7.1333\nentropy = 0.9183\nsamples = 3\nvalue = [1, 2]"] ;
136 -> 137 ;
138 [label="entropy = 0.0\nsamples = 1\nvalue = [1, 0]"] ;
137 -> 138 ;
139 [label="entropy = 0.0\nsamples = 2\nvalue = [0, 2]"] ;
137 -> 139 ;
140 [label="entropy = 0.0\nsamples = 2\nvalue = [2, 0]"] ;
136 -> 140 ;
141 [label="X[4] <= 7.2271\nentropy = 0.3095\nsamples = 18\nvalue = [17, 1]"] ;
133 -> 141 ;
142 [label="entropy = 0.0\nsamples = 10\nvalue = [10, 0]"] ;
141 -> 142 ;
143 [label="X[5] <= 28.25\nentropy = 0.5436\nsamples = 8\nvalue = [7, 1]"] ;
141 -> 143 ;
144 [label="entropy = 0.65\nsamples = 6\nvalue = [5, 1]"] ;
143 -> 144 ;
145 [label="entropy = 0.0\nsamples = 2\nvalue = [2, 0]"] ;
143 -> 145 ;
146 [label="entropy = 0.0\nsamples = 10\nvalue = [10, 0]"] ;
132 -> 146 ;
147 [label="X[5] <= 21.5\nentropy = 0.9367\nsamples = 17\nvalue = [11, 6]"] ;
131 -> 147 ;
148 [label="entropy = 0.0\nsamples = 1\nvalue = [0, 1]"] ;
147 -> 148 ;
149 [label="X[5] <= 28.5\nentropy = 0.896\nsamples = 16\nvalue = [11, 5]"] ;
147 -> 149 ;
150 [label="X[5] <= 24.5\nentropy = 0.8366\nsamples = 15\nvalue = [11, 4]"] ;
149 -> 150 ;
151 [label="entropy = 0.0\nsamples = 2\nvalue = [2, 0]"] ;
150 -> 151 ;
152 [label="X[5] <= 25.5\nentropy = 0.8905\nsamples = 13\nvalue = [9, 4]"] ;
150 -> 152 ;
153 [label="entropy = 0.0\nsamples = 1\nvalue = [0, 1]"] ;
152 -> 153 ;
154 [label="X[4] <= 7.7625\nentropy = 0.8113\nsamples = 12\nvalue = [9, 3]"] ;
152 -> 154 ;
155 [label="X[2] <= 0.5\nentropy = 0.5917\nsamples = 7\nvalue = [6, 1]"] ;
154 -> 155 ;
156 [label="entropy = 0.65\nsamples = 6\nvalue = [5, 1]"] ;
155 -> 156 ;
157 [label="entropy = 0.0\nsamples = 1\nvalue = [1, 0]"] ;
155 -> 157 ;
158 [label="X[5] <= 26.5\nentropy = 0.971\nsamples = 5\nvalue = [3, 2]"] ;
154 -> 158 ;
159 [label="entropy = 0.0\nsamples = 1\nvalue = [1, 0]"] ;
158 -> 159 ;
160 [label="X[5] <= 27.5\nentropy = 1.0\nsamples = 4\nvalue = [2, 2]"] ;
158 -> 160 ;
161 [label="entropy = 0.0\nsamples = 1\nvalue = [0, 1]"] ;
160 -> 161 ;
162 [label="X[4] <= 7.7854\nentropy = 0.9183\nsamples = 3\nvalue = [2, 1]"] ;
160 -> 162 ;
163 [label="entropy = 1.0\nsamples = 2\nvalue = [1, 1]"] ;
162 -> 163 ;
164 [label="entropy = 0.0\nsamples = 1\nvalue = [1, 0]"] ;
162 -> 164 ;
165 [label="entropy = 0.0\nsamples = 1\nvalue = [0, 1]"] ;
149 -> 165 ;
166 [label="X[5] <= 20.5\nentropy = 0.4314\nsamples = 113\nvalue = [103, 10]"] ;
128 -> 166 ;
167 [label="X[2] <= 0.5\nentropy = 0.6769\nsamples = 28\nvalue = [23, 5]"] ;
166 -> 167 ;
168 [label="X[4] <= 11.0\nentropy = 0.5436\nsamples = 24\nvalue = [21, 3]"] ;
167 -> 168 ;
169 [label="X[5] <= 19.5\nentropy = 0.6292\nsamples = 19\nvalue = [16, 3]"] ;
168 -> 169 ;
170 [label="X[4] <= 7.9729\nentropy = 0.7496\nsamples = 14\nvalue = [11, 3]"] ;
169 -> 170 ;
171 [label="entropy = 0.0\nsamples = 2\nvalue = [2, 0]"] ;
170 -> 171 ;
172 [label="X[4] <= 8.3563\nentropy = 0.8113\nsamples = 12\nvalue = [9, 3]"] ;
170 -> 172 ;
173 [label="X[5] <= 17.5\nentropy = 1.0\nsamples = 4\nvalue = [2, 2]"] ;
172 -> 173 ;
174 [label="entropy = 1.0\nsamples = 2\nvalue = [1, 1]"] ;
173 -> 174 ;
175 [label="entropy = 1.0\nsamples = 2\nvalue = [1, 1]"] ;
173 -> 175 ;
176 [label="X[0] <= 2.5\nentropy = 0.5436\nsamples = 8\nvalue = [7, 1]"] ;
172 -> 176 ;
177 [label="X[5] <= 17.5\nentropy = 0.9183\nsamples = 3\nvalue = [2, 1]"] ;
176 -> 177 ;
178 [label="entropy = 0.0\nsamples = 1\nvalue = [1, 0]"] ;
177 -> 178 ;
179 [label="entropy = 1.0\nsamples = 2\nvalue = [1, 1]"] ;
177 -> 179 ;
180 [label="entropy = 0.0\nsamples = 5\nvalue = [5, 0]"] ;
176 -> 180 ;
181 [label="entropy = 0.0\nsamples = 5\nvalue = [5, 0]"] ;
169 -> 181 ;
182 [label="entropy = 0.0\nsamples = 5\nvalue = [5, 0]"] ;
168 -> 182 ;
183 [label="X[5] <= 19.0\nentropy = 1.0\nsamples = 4\nvalue = [2, 2]"] ;
167 -> 183 ;
184 [label="entropy = 0.0\nsamples = 2\nvalue = [2, 0]"] ;
183 -> 184 ;
185 [label="entropy = 0.0\nsamples = 2\nvalue = [0, 2]"] ;
183 -> 185 ;
186 [label="X[5] <= 25.5\nentropy = 0.3228\nsamples = 85\nvalue = [80, 5]"] ;
166 -> 186 ;
187 [label="entropy = 0.0\nsamples = 24\nvalue = [24, 0]"] ;
186 -> 187 ;
188 [label="X[2] <= 0.5\nentropy = 0.4091\nsamples = 61\nvalue = [56, 5]"] ;
186 -> 188 ;
189 [label="X[4] <= 8.0813\nentropy = 0.4754\nsamples = 49\nvalue = [44, 5]"] ;
188 -> 189 ;
190 [label="X[5] <= 28.5\nentropy = 0.2108\nsamples = 30\nvalue = [29, 1]"] ;
189 -> 190 ;
191 [label="entropy = 0.0\nsamples = 26\nvalue = [26, 0]"] ;
190 -> 191 ;
192 [label="X[5] <= 29.5\nentropy = 0.8113\nsamples = 4\nvalue = [3, 1]"] ;
190 -> 192 ;
193 [label="entropy = 0.0\nsamples = 1\nvalue = [0, 1]"] ;
192 -> 193 ;
194 [label="entropy = 0.0\nsamples = 3\nvalue = [3, 0]"] ;
192 -> 194 ;
195 [label="X[4] <= 8.8062\nentropy = 0.7425\nsamples = 19\nvalue = [15, 4]"] ;
189 -> 195 ;
196 [label="entropy = 0.0\nsamples = 1\nvalue = [0, 1]"] ;
195 -> 196 ;
197 [label="X[4] <= 11.75\nentropy = 0.65\nsamples = 18\nvalue = [15, 3]"] ;
195 -> 197 ;
198 [label="entropy = 0.0\nsamples = 6\nvalue = [6, 0]"] ;
197 -> 198 ;
199 [label="X[5] <= 26.5\nentropy = 0.8113\nsamples = 12\nvalue = [9, 3]"] ;
197 -> 199 ;
200 [label="entropy = 0.0\nsamples = 1\nvalue = [0, 1]"] ;
199 -> 200 ;
201 [label="X[0] <= 2.5\nentropy = 0.684\nsamples = 11\nvalue = [9, 2]"] ;
199 -> 201 ;
202 [label="X[4] <= 13.6812\nentropy = 0.9183\nsamples = 6\nvalue = [4, 2]"] ;
201 -> 202 ;
203 [label="X[5] <= 29.0\nentropy = 0.7219\nsamples = 5\nvalue = [4, 1]"] ;
202 -> 203 ;
204 [label="X[5] <= 27.5\nentropy = 0.9183\nsamples = 3\nvalue = [2, 1]"] ;
203 -> 204 ;
205 [label="entropy = 0.0\nsamples = 1\nvalue = [1, 0]"] ;
204 -> 205 ;
206 [label="X[4] <= 13.25\nentropy = 1.0\nsamples = 2\nvalue = [1, 1]"] ;
204 -> 206 ;
207 [label="entropy = 0.0\nsamples = 1\nvalue = [0, 1]"] ;
206 -> 207 ;
208 [label="entropy = 0.0\nsamples = 1\nvalue = [1, 0]"] ;
206 -> 208 ;
209 [label="entropy = 0.0\nsamples = 2\nvalue = [2, 0]"] ;
203 -> 209 ;
210 [label="entropy = 0.0\nsamples = 1\nvalue = [0, 1]"] ;
202 -> 210 ;
211 [label="entropy = 0.0\nsamples = 5\nvalue = [5, 0]"] ;
201 -> 211 ;
212 [label="entropy = 0.0\nsamples = 12\nvalue = [12, 0]"] ;
188 -> 212 ;
213 [label="entropy = 0.0\nsamples = 1\nvalue = [0, 1]"] ;
127 -> 213 ;
214 [label="entropy = 0.0\nsamples = 10\nvalue = [10, 0]"] ;
126 -> 214 ;
215 [label="X[4] <= 7.8146\nentropy = 0.9612\nsamples = 13\nvalue = [8, 5]"] ;
125 -> 215 ;
216 [label="entropy = 0.0\nsamples = 3\nvalue = [3, 0]"] ;
215 -> 216 ;
217 [label="X[4] <= 8.2063\nentropy = 1.0\nsamples = 10\nvalue = [5, 5]"] ;
215 -> 217 ;
218 [label="X[5] <= 31.5\nentropy = 0.9183\nsamples = 6\nvalue = [2, 4]"] ;
217 -> 218 ;
219 [label="entropy = 0.0\nsamples = 1\nvalue = [0, 1]"] ;
218 -> 219 ;
220 [label="X[4] <= 7.875\nentropy = 0.971\nsamples = 5\nvalue = [2, 3]"] ;
218 -> 220 ;
221 [label="entropy = 0.0\nsamples = 1\nvalue = [0, 1]"] ;
220 -> 221 ;
222 [label="X[4] <= 7.9104\nentropy = 1.0\nsamples = 4\nvalue = [2, 2]"] ;
220 -> 222 ;
223 [label="entropy = 0.0\nsamples = 1\nvalue = [1, 0]"] ;
222 -> 223 ;
224 [label="X[4] <= 7.9875\nentropy = 0.9183\nsamples = 3\nvalue = [1, 2]"] ;
222 -> 224 ;
225 [label="entropy = 1.0\nsamples = 2\nvalue = [1, 1]"] ;
224 -> 225 ;
226 [label="entropy = 0.0\nsamples = 1\nvalue = [0, 1]"] ;
224 -> 226 ;
227 [label="X[0] <= 2.5\nentropy = 0.8113\nsamples = 4\nvalue = [3, 1]"] ;
217 -> 227 ;
228 [label="X[4] <= 26.125\nentropy = 1.0\nsamples = 2\nvalue = [1, 1]"] ;
227 -> 228 ;
229 [label="entropy = 0.0\nsamples = 1\nvalue = [0, 1]"] ;
228 -> 229 ;
230 [label="entropy = 0.0\nsamples = 1\nvalue = [1, 0]"] ;
228 -> 230 ;
231 [label="entropy = 0.0\nsamples = 2\nvalue = [2, 0]"] ;
227 -> 231 ;
232 [label="X[4] <= 7.9104\nentropy = 0.3568\nsamples = 74\nvalue = [69, 5]"] ;
124 -> 232 ;
233 [label="entropy = 0.0\nsamples = 23\nvalue = [23, 0]"] ;
232 -> 233 ;
234 [label="X[4] <= 13.25\nentropy = 0.4627\nsamples = 51\nvalue = [46, 5]"] ;
232 -> 234 ;
235 [label="X[4] <= 7.9875\nentropy = 0.6632\nsamples = 29\nvalue = [24, 5]"] ;
234 -> 235 ;
236 [label="X[5] <= 38.0\nentropy = 1.0\nsamples = 4\nvalue = [2, 2]"] ;
235 -> 236 ;
237 [label="entropy = 0.0\nsamples = 1\nvalue = [1, 0]"] ;
236 -> 237 ;
238 [label="X[5] <= 41.5\nentropy = 0.9183\nsamples = 3\nvalue = [1, 2]"] ;
236 -> 238 ;
239 [label="entropy = 1.0\nsamples = 2\nvalue = [1, 1]"] ;
238 -> 239 ;
240 [label="entropy = 0.0\nsamples = 1\nvalue = [0, 1]"] ;
238 -> 240 ;
241 [label="X[0] <= 2.5\nentropy = 0.5294\nsamples = 25\nvalue = [22, 3]"] ;
235 -> 241 ;
242 [label="X[5] <= 45.0\nentropy = 0.8454\nsamples = 11\nvalue = [8, 3]"] ;
241 -> 242 ;
243 [label="X[4] <= 11.75\nentropy = 0.971\nsamples = 5\nvalue = [3, 2]"] ;
242 -> 243 ;
244 [label="entropy = 0.0\nsamples = 1\nvalue = [1, 0]"] ;
243 -> 244 ;
245 [label="X[5] <= 38.0\nentropy = 1.0\nsamples = 4\nvalue = [2, 2]"] ;
243 -> 245 ;
246 [label="entropy = 1.0\nsamples = 2\nvalue = [1, 1]"] ;
245 -> 246 ;
247 [label="entropy = 1.0\nsamples = 2\nvalue = [1, 1]"] ;
245 -> 247 ;
248 [label="X[5] <= 57.0\nentropy = 0.65\nsamples = 6\nvalue = [5, 1]"] ;
242 -> 248 ;
249 [label="entropy = 0.0\nsamples = 4\nvalue = [4, 0]"] ;
248 -> 249 ;
250 [label="X[5] <= 66.0\nentropy = 1.0\nsamples = 2\nvalue = [1, 1]"] ;
248 -> 250 ;
251 [label="entropy = 0.0\nsamples = 1\nvalue = [0, 1]"] ;
250 -> 251 ;
252 [label="entropy = 0.0\nsamples = 1\nvalue = [1, 0]"] ;
250 -> 252 ;
253 [label="entropy = 0.0\nsamples = 14\nvalue = [14, 0]"] ;
241 -> 253 ;
254 [label="entropy = 0.0\nsamples = 22\nvalue = [22, 0]"] ;
234 -> 254 ;
255 [label="entropy = 0.0\nsamples = 18\nvalue = [18, 0]"] ;
87 -> 255 ;
256 [label="X[2] <= 1.5\nentropy = 0.9565\nsamples = 45\nvalue = [28, 17]"] ;
86 -> 256 ;
257 [label="X[5] <= 41.5\nentropy = 0.9953\nsamples = 37\nvalue = [20, 17]"] ;
256 -> 257 ;
258 [label="X[5] <= 30.0\nentropy = 0.9896\nsamples = 25\nvalue = [11, 14]"] ;
257 -> 258 ;
259 [label="X[5] <= 23.5\nentropy = 0.9774\nsamples = 17\nvalue = [10, 7]"] ;
258 -> 259 ;
260 [label="X[3] <= 1.5\nentropy = 0.65\nsamples = 6\nvalue = [5, 1]"] ;
259 -> 260 ;
261 [label="entropy = 0.0\nsamples = 5\nvalue = [5, 0]"] ;
260 -> 261 ;
262 [label="entropy = 0.0\nsamples = 1\nvalue = [0, 1]"] ;
260 -> 262 ;
263 [label="X[5] <= 27.5\nentropy = 0.994\nsamples = 11\nvalue = [5, 6]"] ;
259 -> 263 ;
264 [label="entropy = 0.0\nsamples = 5\nvalue = [0, 5]"] ;
263 -> 264 ;
265 [label="X[0] <= 2.0\nentropy = 0.65\nsamples = 6\nvalue = [5, 1]"] ;
263 -> 265 ;
266 [label="entropy = 0.0\nsamples = 3\nvalue = [3, 0]"] ;
265 -> 266 ;
267 [label="entropy = 0.9183\nsamples = 3\nvalue = [2, 1]"] ;
265 -> 267 ;
268 [label="X[5] <= 35.5\nentropy = 0.5436\nsamples = 8\nvalue = [1, 7]"] ;
258 -> 268 ;
269 [label="entropy = 0.0\nsamples = 4\nvalue = [0, 4]"] ;
268 -> 269 ;
270 [label="X[3] <= 0.5\nentropy = 0.8113\nsamples = 4\nvalue = [1, 3]"] ;
268 -> 270 ;
271 [label="X[4] <= 84.425\nentropy = 1.0\nsamples = 2\nvalue = [1, 1]"] ;
270 -> 271 ;
272 [label="entropy = 0.0\nsamples = 1\nvalue = [1, 0]"] ;
271 -> 272 ;
273 [label="entropy = 0.0\nsamples = 1\nvalue = [0, 1]"] ;
271 -> 273 ;
274 [label="entropy = 0.0\nsamples = 2\nvalue = [0, 2]"] ;
270 -> 274 ;
275 [label="X[4] <= 73.8646\nentropy = 0.8113\nsamples = 12\nvalue = [9, 3]"] ;
257 -> 275 ;
276 [label="entropy = 0.0\nsamples = 3\nvalue = [3, 0]"] ;
275 -> 276 ;
277 [label="X[4] <= 77.0083\nentropy = 0.9183\nsamples = 9\nvalue = [6, 3]"] ;
275 -> 277 ;
278 [label="entropy = 0.0\nsamples = 1\nvalue = [0, 1]"] ;
277 -> 278 ;
279 [label="X[5] <= 47.5\nentropy = 0.8113\nsamples = 8\nvalue = [6, 2]"] ;
277 -> 279 ;
280 [label="entropy = 0.0\nsamples = 2\nvalue = [2, 0]"] ;
279 -> 280 ;
281 [label="X[3] <= 0.5\nentropy = 0.9183\nsamples = 6\nvalue = [4, 2]"] ;
279 -> 281 ;
282 [label="entropy = 0.0\nsamples = 1\nvalue = [0, 1]"] ;
281 -> 282 ;
283 [label="X[4] <= 79.425\nentropy = 0.7219\nsamples = 5\nvalue = [4, 1]"] ;
281 -> 283 ;
284 [label="X[5] <= 57.0\nentropy = 1.0\nsamples = 2\nvalue = [1, 1]"] ;
283 -> 284 ;
285 [label="entropy = 0.0\nsamples = 1\nvalue = [1, 0]"] ;
284 -> 285 ;
286 [label="entropy = 0.0\nsamples = 1\nvalue = [0, 1]"] ;
284 -> 286 ;
287 [label="entropy = 0.0\nsamples = 3\nvalue = [3, 0]"] ;
283 -> 287 ;
288 [label="entropy = 0.0\nsamples = 8\nvalue = [8, 0]"] ;
256 -> 288 ;
}